|--- 🚀 Start SYS_check_Auto_Update!
|
|--- 📂 Načíst soubor ze složky "github_Developer_Name/config_Title/config.json"
|		|
|		|--- ❓ Když soubor obsahuje libovoulnou hodnotu
|		|		|
|		|		|--- ⚙️ Nastavit "set_Auto_Update" na "config_Auto_Update"
|		|		|--- ➡️ Pokračovat "SYS_check_Auto_Update"
|		|
|		|--- Jinak
|				|
|				|--- Žádná akce
|				|--- ➡️ Pokračovat "SYS_check_Auto_Update"
|
|--- ⚙️ Nastavit proměnnou "set_Auto_Update" na "Výsledek"
